// Bayesian Network in the Interchange Format
// Produced by BayesianNetworks package in JavaBayes
// Output created Sun Nov 02 17:58:15 GMT+00:00 1997
// Bayesian network 
network "Alarm" { //37 variables and 37 probability distributions
}
variable  "Hypovolemia" { //2 values
	type discrete[2] {  "True"  "False" };
	property "position = (54, 35)" ;
}
variable  "StrokeVolume" { //3 values
	type discrete[3] {  "Low"  "Normal"  "High" };
	property "position = (184, 113)" ;
}
variable  "LVFailure" { //2 values
	type discrete[2] {  "True"  "False" };
	property "position = (145, 36)" ;
}
variable  "LVEDVolume" { //3 values
	type discrete[3] {  "Low"  "Normal"  "High" };
	property "position = (68, 114)" ;
}
variable  "PCWP" { //3 values
	type discrete[3] {  "Low"  "Normal"  "High" };
	property "position = (111, 177)" ;
}
variable  "CVP" { //3 values
	type discrete[3] {  "Low"  "Normal"  "High" };
	property "position = (32, 179)" ;
}
variable  "History" { //2 values
	type discrete[2] {  "True"  "False" };
	property "position = (238, 61)" ;
}
variable  "MinVolSet" { //3 values
	type discrete[3] {  "Low"  "Normal"  "High" };
	property "position = (564, 38)" ;
}
variable  "VentMach" { //4 values
	type discrete[4] {  "Zero"  "Low"  "Normal"  "High" };
	property "position = (640, 86)" ;
}
variable  "Disconnect" { //2 values
	type discrete[2] {  "True"  "False" };
	property "position = (738, 86)" ;
}
variable  "VentTube" { //4 values
	type discrete[4] {  "Zero"  "Low"  "Normal"  "High" };
	property "position = (682, 168)" ;
}
variable  "KinkedTube" { //2 values
	type discrete[2] {  "True"  "False" };
	property "position = (564, 172)" ;
}
variable  "Press" { //4 values
	type discrete[4] {  "Zero"  "Low"  "Normal"  "High" };
	property "position = (722, 253)" ;
}
variable  "ErrLowOutput" { //2 values
	type discrete[2] {  "True"  "False" };
	property "position = (226, 237)" ;
}
variable  "HRBP" { //3 values
	type discrete[3] {  "Low"  "Normal"  "High" };
	property "position = (229, 305)" ;
}
variable  "ErrCauter" { //2 values
	type discrete[2] {  "True"  "False" };
	property "position = (366, 278)" ;
}
variable  "HREKG" { //3 values
	type discrete[3] {  "Low"  "Normal"  "High" };
	property "position = (289, 305)" ;
}
variable  "HRSat" { //3 values
	type discrete[3] {  "Low"  "Normal"  "High" };
	property "position = (220, 396)" ;
}
variable  "BP" { //3 values
	type discrete[3] {  "Low"  "Normal"  "High" };
	property "position = (154, 396)" ;
}
variable  "CO" { //3 values
	type discrete[3] {  "Low"  "Normal"  "High" };
	property "position = (195, 176)" ;
}
variable  "HR" { //3 values
	type discrete[3] {  "Low"  "Normal"  "High" };
	property "position = (308, 171)" ;
}
variable  "TPR" { //3 values
	type discrete[3] {  "Low"  "Normal"  "High" };
	property "position = (120, 301)" ;
}
variable  "Anaphylaxis" { //2 values
	type discrete[2] {  "True"  "False" };
	property "position = (31, 239)" ;
}
variable  "InsuffAnesth" { //2 values
	type discrete[2] {  "True"  "False" };
	property "position = (329, 37)" ;
}
variable  "PAP" { //3 values
	type discrete[3] {  "Low"  "Normal"  "High" };
	property "position = (1045, 292)" ;
}
variable  "PulmEmbolus" { //2 values
	type discrete[2] {  "True"  "False" };
	property "position = (969, 258)" ;
}
variable  "FiO2" { //2 values
	type discrete[2] {  "Low"  "Normal" };
	property "position = (1014, 162)" ;
}
variable  "Catechol" { //2 values
	type discrete[2] {  "Normal"  "High" };
	property "position = (329, 107)" ;
}
variable  "SaO2" { //3 values
	type discrete[3] {  "Low"  "Normal"  "High" };
	property "position = (926, 387)" ;
}
variable  "Shunt" { //2 values
	type discrete[2] {  "Normal"  "High" };
	property "position = (894, 293)" ;
}
variable  "PVSat" { //3 values
	type discrete[3] {  "Low"  "Normal"  "High" };
	property "position = (949, 197)" ;
}
variable  "MinVol" { //4 values
	type discrete[4] {  "Zero"  "Low"  "Normal"  "High" };
	property "position = (754, 387)" ;
}
variable  "ExpCO2" { //4 values
	type discrete[4] {  "Zero"  "Low"  "Normal"  "High" };
	property "position = (530, 393)" ;
}
variable  "ArtCO2" { //3 values
	type discrete[3] {  "Low"  "Normal"  "High" };
	property "position = (474, 277)" ;
}
variable  "VentAlv" { //4 values
	type discrete[4] {  "Zero"  "Low"  "Normal"  "High" };
	property "position = (881, 165)" ;
}
variable  "VentLung" { //4 values
	type discrete[4] {  "Zero"  "Low"  "Normal"  "High" };
	property "position = (706, 344)" ;
}
variable  "Intubation" { //3 values
	type discrete[3] {  "Normal"  "Esophageal"  "OneSided" };
	property "position = (843, 86)" ;
}
probability (  "Hypovolemia" ) { //1 variable(s) and 2 values
	table 0.2049 0.7951 ;
}
probability (  "StrokeVolume"  "LVFailure"  "Hypovolemia" ) { //3 variable(s) and 12 values
	table 0.9980 0.4956 0.9442 0.0510 0.0010 0.4871 0.0432 0.8987 0.0010 0.0173 0.0126 0.0503 ;
}
probability (  "LVFailure" ) { //1 variable(s) and 2 values
	table 0.0513 0.9487 ;
}
probability (  "LVEDVolume"  "Hypovolemia"  "LVFailure" ) { //3 variable(s) and 12 values
	table 0.9405 0.9752 0.0057 0.0489 0.0419 0.0115 0.0839 0.8979 0.0175 0.0133 0.9104 0.0532 ;
}
probability (  "PCWP"  "LVEDVolume" ) { //2 variable(s) and 9 values
	table 0.9452 0.0385 0.0130 0.0454 0.9500 0.0389 0.0094 0.0115 0.9482 ;
}
probability (  "CVP"  "LVEDVolume" ) { //2 variable(s) and 9 values
	table 0.9454 0.0450 0.0086 0.0425 0.9416 0.2714 0.0120 0.0134 0.7200 ;
}
probability (  "History"  "LVFailure" ) { //2 variable(s) and 4 values
	table 0.9096 0.0120 0.0904 0.9880 ;
}
probability (  "MinVolSet" ) { //1 variable(s) and 3 values
	table 0.0108 0.9782 0.0109 ;
}
probability (  "VentMach"  "MinVolSet" ) { //2 variable(s) and 12 values
	table 0.0142 0.0114 0.0011 0.9371 0.0113 0.0010 0.0292 0.9672 0.0103 0.0195 0.0101 0.9876 ;
}
probability (  "Disconnect" ) { //1 variable(s) and 2 values
	table 0.0504 0.9496 ;
}
probability (  "VentTube"  "VentMach"  "Disconnect" ) { //3 variable(s) and 32 values
	table 0.9970 0.9207 0.6676 0.0235 0.9697 0.0113 0.9970 0.0067 0.0010 0.0295 0.1695 0.9598 0.0087 0.0118 0.0010 0.0061 0.0010 0.0390 0.1620 0.0059 0.0147 0.9662 0.0010 0.0112 0.0010 0.0108 0.0010 0.0108 0.0069 0.0108 0.0010 0.9760 ;
}
probability (  "KinkedTube" ) { //1 variable(s) and 2 values
	table 0.0459 0.9541 ;
}
probability (  "Press"  "KinkedTube"  "Intubation"  "VentTube" ) { //4 variable(s) and 96 values
	table 0.9217 0.0011 0.0010 0.0010 0.0010 0.0010 0.0010 0.0010 0.9970 0.0010 0.0011 0.4521 0.9764 0.0123 0.0124 0.0087 0.9970 0.5357 0.2044 0.1813 0.9511 0.0011 0.0167 0.0010 0.0011 0.6367 0.0113 0.0010 0.0010 0.9970 0.2640 0.0010 0.0010 0.2026 0.0011 0.0010 0.0094 0.9706 0.0103 0.0087 0.0010 0.4623 0.7200 0.8166 0.0240 0.8862 0.0075 0.0010 0.0011 0.2188 0.0691 0.0010 0.0010 0.0010 0.4032 0.0010 0.0010 0.0010 0.1011 0.0010 0.0042 0.0086 0.9680 0.0087 0.0010 0.0010 0.0590 0.0011 0.0239 0.1117 0.3951 0.0010 0.0761 0.1435 0.9186 0.9969 0.0010 0.0010 0.3318 0.0010 0.0010 0.7954 0.8967 0.5459 0.0100 0.0085 0.0092 0.9740 0.0010 0.0010 0.0167 0.0011 0.0010 0.0011 0.5807 0.9970 ;
}
probability (  "ErrLowOutput" ) { //1 variable(s) and 2 values
	table 0.0518 0.9482 ;
}
probability (  "HRBP"  "ErrLowOutput"  "HR" ) { //3 variable(s) and 18 values
	table 0.9557 0.3552 0.3220 0.9738 0.0105 0.0104 0.0010 0.6392 0.3631 0.0131 0.9789 0.0116 0.0433 0.0056 0.3150 0.0131 0.0106 0.9781 ;
}
probability (  "ErrCauter" ) { //1 variable(s) and 2 values
	table 0.0990 0.9010 ;
}
probability (  "HREKG"  "HR"  "ErrCauter" ) { //3 variable(s) and 18 values
	table 0.3572 0.9868 0.3918 0.0142 0.3203 0.0102 0.2652 0.0121 0.3005 0.9734 0.3380 0.0101 0.3776 0.0010 0.3077 0.0124 0.3417 0.9797 ;
}
probability (  "HRSat"  "HR"  "ErrCauter" ) { //3 variable(s) and 18 values
	table 0.3027 0.9714 0.3048 0.0108 0.3292 0.0102 0.3617 0.0164 0.3131 0.9774 0.3203 0.0096 0.3356 0.0123 0.3822 0.0118 0.3506 0.9802 ;
}
probability (  "BP"  "CO"  "TPR" ) { //3 variable(s) and 27 values
	table 0.9808 0.9691 0.3041 0.9820 0.0952 0.0511 0.9027 0.0383 0.0103 0.0108 0.0123 0.6006 0.0090 0.8444 0.3856 0.0838 0.1975 0.0881 0.0084 0.0186 0.0953 0.0090 0.0604 0.5633 0.0135 0.7642 0.9016 ;
}
probability (  "CO"  "HR"  "StrokeVolume" ) { //3 variable(s) and 27 values
	table 0.9683 0.9563 0.3410 0.9458 0.0433 0.0065 0.7999 0.0111 0.0158 0.0085 0.0400 0.6580 0.0402 0.9452 0.3527 0.1913 0.0388 0.0011 0.0232 0.0037 0.0010 0.0140 0.0115 0.6408 0.0088 0.9501 0.9831 ;
}
probability (  "HR"  "Catechol" ) { //2 variable(s) and 6 values
	table 0.1039 0.0111 0.8825 0.0878 0.0135 0.9011 ;
}
probability (  "TPR"  "Anaphylaxis" ) { //2 variable(s) and 6 values
	table 0.9869 0.3050 0.0010 0.3959 0.0121 0.2991 ;
}
probability (  "Anaphylaxis" ) { //1 variable(s) and 2 values
	table 0.0093 0.9907 ;
}
probability (  "InsuffAnesth" ) { //1 variable(s) and 2 values
	table 0.2013 0.7987 ;
}
probability (  "PAP"  "PulmEmbolus" ) { //2 variable(s) and 6 values
	table 0.0011 0.0511 0.1901 0.9001 0.8089 0.0489 ;
}
probability (  "PulmEmbolus" ) { //1 variable(s) and 2 values
	table 0.0118 0.9882 ;
}
probability (  "FiO2" ) { //1 variable(s) and 2 values
	table 0.0108 0.9892 ;
}
probability (  "Catechol"  "InsuffAnesth"  "SaO2"  "TPR"  "ArtCO2" ) { //5 variable(s) and 108 values
	table 0.1125 0.0010 0.0146 0.0011 0.0010 0.0174 0.0010 0.0310 0.0175 0.0019 0.0114 0.0010 0.0348 0.0096 0.0010 0.0010 0.0602 0.0010 0.0010 0.0010 0.0017 0.0447 0.1101 0.0010 0.0363 0.0011 0.0010 0.1155 0.0344 0.0027 0.0442 0.0414 0.0065 0.0634 0.0498 0.0120 0.1218 0.1107 0.1236 0.9869 0.9466 0.3081 0.9284 0.9547 0.2683 0.9350 0.9501 0.3122 0.9822 0.9909 0.9990 0.9600 0.9990 0.4092 0.8875 0.9990 0.9854 0.9989 0.9990 0.9826 0.9990 0.9690 0.9825 0.9981 0.9886 0.9990 0.9652 0.9904 0.9990 0.9990 0.9398 0.9990 0.9990 0.9990 0.9983 0.9553 0.8899 0.9990 0.9637 0.9989 0.9990 0.8845 0.9656 0.9973 0.9558 0.9586 0.9935 0.9366 0.9502 0.9880 0.8782 0.8893 0.8764 0.0131 0.0534 0.6919 0.0716 0.0453 0.7317 0.0650 0.0499 0.6878 0.0178 0.0091 0.0010 0.0400 0.0010 0.5908 ;
}
probability (  "SaO2"  "Shunt"  "PVSat" ) { //3 variable(s) and 18 values
	table 0.9770 0.0093 0.0174 0.9723 0.9878 0.7669 0.0089 0.9784 0.0083 0.0155 0.0052 0.2321 0.0141 0.0123 0.9743 0.0122 0.0071 0.0010 ;
}
probability (  "Shunt"  "PulmEmbolus"  "Intubation" ) { //3 variable(s) and 12 values
	table 0.0851 0.0013 0.0010 0.9502 0.9597 0.0451 0.9149 0.9987 0.9990 0.0498 0.0403 0.9549 ;
}
probability (  "PVSat"  "VentAlv"  "FiO2" ) { //3 variable(s) and 24 values
	table 0.9980 0.9829 0.9979 0.9767 0.9574 0.0106 0.9980 0.0077 0.0010 0.0094 0.0011 0.0108 0.0416 0.9457 0.0010 0.0168 0.0010 0.0077 0.0010 0.0125 0.0010 0.0438 0.0010 0.9755 ;
}
probability (  "MinVol"  "VentLung"  "Intubation" ) { //3 variable(s) and 48 values
	table 0.9729 0.9806 0.9684 0.0095 0.9970 0.0010 0.0100 0.5000 0.0165 0.0068 0.4990 0.0010 0.0108 0.0109 0.0153 0.9748 0.0010 0.9677 0.0110 0.4980 0.0143 0.0155 0.4990 0.0010 0.0087 0.0043 0.0010 0.0113 0.0010 0.0010 0.9666 0.0010 0.9548 0.0126 0.0010 0.0010 0.0076 0.0043 0.0153 0.0044 0.0010 0.0303 0.0124 0.0010 0.0143 0.9651 0.0010 0.9970 ;
}
probability (  "ExpCO2"  "ArtCO2"  "VentLung" ) { //3 variable(s) and 48 values
	table 0.9970 0.1115 0.0132 0.0108 0.9268 0.0785 0.0093 0.0010 0.9690 0.0093 0.0127 0.0485 0.0010 0.8862 0.9723 0.9708 0.0361 0.0011 0.0108 0.0010 0.0106 0.0126 0.0057 0.0010 0.0010 0.0012 0.0060 0.0141 0.0010 0.9194 0.9688 0.9970 0.0122 0.0095 0.0091 0.0484 0.0010 0.0011 0.0084 0.0043 0.0361 0.0011 0.0111 0.0010 0.0082 0.9686 0.9725 0.9021 ;
}
probability (  "ArtCO2"  "VentAlv" ) { //2 variable(s) and 12 values
	table 0.0092 0.0079 0.0433 0.8972 0.0092 0.0122 0.9188 0.0860 0.9816 0.9798 0.0379 0.0168 ;
}
probability (  "VentAlv"  "Intubation"  "VentLung" ) { //3 variable(s) and 48 values
	table 0.9702 0.0111 0.0108 0.0067 0.9612 0.0010 0.0010 0.0010 0.9261 0.0011 0.0035 0.0010 0.0098 0.9622 0.0090 0.0067 0.0142 0.9970 0.0010 0.0010 0.0297 0.9969 0.9547 0.7977 0.0138 0.0109 0.9695 0.0153 0.0106 0.0010 0.9970 0.0010 0.0291 0.0010 0.0343 0.1338 0.0062 0.0158 0.0107 0.9713 0.0140 0.0010 0.0010 0.9970 0.0151 0.0010 0.0075 0.0675 ;
}
probability (  "VentLung"  "KinkedTube"  "VentTube"  "Intubation" ) { //4 variable(s) and 96 values
	table 0.9970 0.0010 0.9970 0.9303 0.9970 0.9970 0.4233 0.9970 0.6285 0.3342 0.0010 0.9970 0.9760 0.9970 0.9746 0.0108 0.9969 0.0010 0.0099 0.9704 0.0107 0.0084 0.9969 0.0886 0.0010 0.0010 0.0010 0.0677 0.0010 0.0010 0.5649 0.0010 0.3694 0.6637 0.0010 0.0010 0.0055 0.0010 0.0011 0.9577 0.0010 0.9445 0.0125 0.0048 0.0144 0.0196 0.0010 0.0010 0.0010 0.0010 0.0010 0.0010 0.0010 0.0010 0.0010 0.0010 0.0010 0.0010 0.0010 0.0010 0.0085 0.0010 0.0010 0.0121 0.0011 0.0535 0.9676 0.0086 0.9613 0.0086 0.0011 0.0010 0.0010 0.0010 0.0010 0.0010 0.0010 0.0010 0.0107 0.0010 0.0010 0.0010 0.0010 0.0010 0.0100 0.0010 0.0234 0.0194 0.0010 0.0010 0.0100 0.0162 0.0136 0.9633 0.0010 0.9094 ;
}
probability (  "Intubation" ) { //1 variable(s) and 3 values
	table 0.9177 0.0295 0.0528 ;
}

