// Bayesian Network in the Interchange Format
// Produced by BayesianNetworks package in JavaBayes
// Output created Sun Nov 02 17:58:15 GMT+00:00 1997
// Bayesian network 
network "Alarm" { //37 variables and 37 probability distributions
}
variable  "Hypovolemia" { //2 values
	type discrete[2] {  "True"  "False" };
	property "position = (54, 35)" ;
}
variable  "StrokeVolume" { //3 values
	type discrete[3] {  "Low"  "Normal"  "High" };
	property "position = (184, 113)" ;
}
variable  "LVFailure" { //2 values
	type discrete[2] {  "True"  "False" };
	property "position = (145, 36)" ;
}
variable  "LVEDVolume" { //3 values
	type discrete[3] {  "Low"  "Normal"  "High" };
	property "position = (68, 114)" ;
}
variable  "PCWP" { //3 values
	type discrete[3] {  "Low"  "Normal"  "High" };
	property "position = (111, 177)" ;
}
variable  "CVP" { //3 values
	type discrete[3] {  "Low"  "Normal"  "High" };
	property "position = (32, 179)" ;
}
variable  "History" { //2 values
	type discrete[2] {  "True"  "False" };
	property "position = (238, 61)" ;
}
variable  "MinVolSet" { //3 values
	type discrete[3] {  "Low"  "Normal"  "High" };
	property "position = (564, 38)" ;
}
variable  "VentMach" { //4 values
	type discrete[4] {  "Zero"  "Low"  "Normal"  "High" };
	property "position = (640, 86)" ;
}
variable  "Disconnect" { //2 values
	type discrete[2] {  "True"  "False" };
	property "position = (738, 86)" ;
}
variable  "VentTube" { //4 values
	type discrete[4] {  "Zero"  "Low"  "Normal"  "High" };
	property "position = (682, 168)" ;
}
variable  "KinkedTube" { //2 values
	type discrete[2] {  "True"  "False" };
	property "position = (564, 172)" ;
}
variable  "Press" { //4 values
	type discrete[4] {  "Zero"  "Low"  "Normal"  "High" };
	property "position = (722, 253)" ;
}
variable  "ErrLowOutput" { //2 values
	type discrete[2] {  "True"  "False" };
	property "position = (226, 237)" ;
}
variable  "HRBP" { //3 values
	type discrete[3] {  "Low"  "Normal"  "High" };
	property "position = (229, 305)" ;
}
variable  "ErrCauter" { //2 values
	type discrete[2] {  "True"  "False" };
	property "position = (366, 278)" ;
}
variable  "HREKG" { //3 values
	type discrete[3] {  "Low"  "Normal"  "High" };
	property "position = (289, 305)" ;
}
variable  "HRSat" { //3 values
	type discrete[3] {  "Low"  "Normal"  "High" };
	property "position = (220, 396)" ;
}
variable  "BP" { //3 values
	type discrete[3] {  "Low"  "Normal"  "High" };
	property "position = (154, 396)" ;
}
variable  "CO" { //3 values
	type discrete[3] {  "Low"  "Normal"  "High" };
	property "position = (195, 176)" ;
}
variable  "HR" { //3 values
	type discrete[3] {  "Low"  "Normal"  "High" };
	property "position = (308, 171)" ;
}
variable  "TPR" { //3 values
	type discrete[3] {  "Low"  "Normal"  "High" };
	property "position = (120, 301)" ;
}
variable  "Anaphylaxis" { //2 values
	type discrete[2] {  "True"  "False" };
	property "position = (31, 239)" ;
}
variable  "InsuffAnesth" { //2 values
	type discrete[2] {  "True"  "False" };
	property "position = (329, 37)" ;
}
variable  "PAP" { //3 values
	type discrete[3] {  "Low"  "Normal"  "High" };
	property "position = (1045, 292)" ;
}
variable  "PulmEmbolus" { //2 values
	type discrete[2] {  "True"  "False" };
	property "position = (969, 258)" ;
}
variable  "FiO2" { //2 values
	type discrete[2] {  "Low"  "Normal" };
	property "position = (1014, 162)" ;
}
variable  "Catechol" { //2 values
	type discrete[2] {  "Normal"  "High" };
	property "position = (329, 107)" ;
}
variable  "SaO2" { //3 values
	type discrete[3] {  "Low"  "Normal"  "High" };
	property "position = (926, 387)" ;
}
variable  "Shunt" { //2 values
	type discrete[2] {  "Normal"  "High" };
	property "position = (894, 293)" ;
}
variable  "PVSat" { //3 values
	type discrete[3] {  "Low"  "Normal"  "High" };
	property "position = (949, 197)" ;
}
variable  "MinVol" { //4 values
	type discrete[4] {  "Zero"  "Low"  "Normal"  "High" };
	property "position = (754, 387)" ;
}
variable  "ExpCO2" { //4 values
	type discrete[4] {  "Zero"  "Low"  "Normal"  "High" };
	property "position = (530, 393)" ;
}
variable  "ArtCO2" { //3 values
	type discrete[3] {  "Low"  "Normal"  "High" };
	property "position = (474, 277)" ;
}
variable  "VentAlv" { //4 values
	type discrete[4] {  "Zero"  "Low"  "Normal"  "High" };
	property "position = (881, 165)" ;
}
variable  "VentLung" { //4 values
	type discrete[4] {  "Zero"  "Low"  "Normal"  "High" };
	property "position = (706, 344)" ;
}
variable  "Intubation" { //3 values
	type discrete[3] {  "Normal"  "Esophageal"  "OneSided" };
	property "position = (843, 86)" ;
}
probability (  "Hypovolemia" ) { //1 variable(s) and 2 values
	table 0.20230 0.79770 ;
}
probability (  "StrokeVolume"  "LVFailure"  "Hypovolemia" ) { //3 variable(s) and 12 values
	table 0.99986 0.49515 0.94759 0.04870 0.00010 0.48845 0.04063 0.90306 0.00010 0.01638 0.01178 0.04824 ;
}
probability (  "LVFailure" ) { //1 variable(s) and 2 values
	table 0.04948 0.95052 ;
}
probability (  "LVEDVolume"  "Hypovolemia"  "LVFailure" ) { //3 variable(s) and 12 values
	table 0.94283 0.97792 0.00484 0.04747 0.04076 0.01033 0.08020 0.90091 0.01632 0.01174 0.91494 0.05163 ;
}
probability (  "PCWP"  "LVEDVolume" ) { //2 variable(s) and 9 values
	table 0.94798 0.03654 0.01235 0.04322 0.94971 0.03947 0.00880 0.01375 0.94817 ;
}
probability (  "CVP"  "LVEDVolume" ) { //2 variable(s) and 9 values
	table 0.94835 0.04296 0.00719 0.04017 0.94211 0.26475 0.01148 0.01493 0.72805 ;
}
probability (  "History"  "LVFailure" ) { //2 variable(s) and 4 values
	table 0.91552 0.01063 0.08446 0.98937 ;
}
probability (  "MinVolSet" ) { //1 variable(s) and 3 values
	table 0.00949 0.98066 0.00985 ;
}
probability (  "VentMach"  "MinVolSet" ) { //2 variable(s) and 12 values
	table 0.00964 0.01033 0.00010 0.94210 0.01072 0.00010 0.02887 0.96986 0.00938 0.01926 0.00909 0.99042 ;
}
probability (  "Disconnect" ) { //1 variable(s) and 2 values
	table 0.04870 0.95130 ;
}
probability (  "VentTube"  "VentMach"  "Disconnect" ) { //3 variable(s) and 32 values
	table 0.99594 0.92823 0.91574 0.02249 0.97431 0.00983 0.99796 0.00522 0.00058 0.02686 0.04176 0.91449 0.00593 0.01044 0.00029 0.00522 0.00058 0.03581 0.04176 0.00451 0.01381 0.97062 0.00029 0.01317 0.00058 0.00898 0.00015 0.05845 0.00592 0.00911 0.00029 0.97632 ;
}
probability (  "KinkedTube" ) { //1 variable(s) and 2 values
	table 0.04404 0.95596 ;
}
probability (  "Press"  "KinkedTube"  "Intubation"  "VentTube" ) { //4 variable(s) and 96 values
	table 0.93962 0.00021 0.00010 0.00039 0.12500 0.12500 0.00023 0.12500 0.98792 0.00340 0.00013 0.97617 0.98040 0.01105 0.01149 0.00732 0.99825 0.53757 0.20092 0.15521 0.95397 0.00018 0.01520 0.00039 0.00021 0.63853 0.00981 0.00039 0.12500 0.12500 0.26640 0.12500 0.00173 0.00340 0.00013 0.00340 0.00753 0.97416 0.00932 0.00732 0.00025 0.46082 0.72946 0.84316 0.02282 0.89300 0.00652 0.00039 0.00021 0.24021 0.08802 0.00039 0.12500 0.12500 0.39949 0.12500 0.00173 0.00340 0.13921 0.00340 0.00302 0.00737 0.97094 0.03849 0.00025 0.00027 0.05410 0.00027 0.02282 0.10589 0.40303 0.00039 0.05914 0.12021 0.90212 0.99729 0.12500 0.12500 0.33295 0.12500 0.00173 0.97617 0.86001 0.00340 0.00903 0.00737 0.00826 0.94681 0.00025 0.00027 0.01547 0.00027 0.00010 0.00018 0.57521 0.99729 ;
}
probability (  "ErrLowOutput" ) { //1 variable(s) and 2 values
	table 0.04957 0.95043 ;
}
probability (  "HRBP"  "ErrLowOutput"  "HR" ) { //3 variable(s) and 18 values
	table 0.95757 0.36119 0.32156 0.97615 0.00920 0.00888 0.00015 0.61751 0.38054 0.01192 0.94591 0.01069 0.04185 0.02126 0.29787 0.01192 0.04489 0.98042 ;
}
probability (  "ErrCauter" ) { //1 variable(s) and 2 values
	table 0.09616 0.90384 ;
}
probability (  "HREKG"  "HR"  "ErrCauter" ) { //3 variable(s) and 18 values
	table 0.36119 0.98934 0.40872 0.01205 0.31368 0.00933 0.26610 0.01063 0.29009 0.93998 0.34442 0.00891 0.37252 0.00010 0.30117 0.04796 0.34188 0.98176 ;
}
probability (  "HRSat"  "HR"  "ErrCauter" ) { //3 variable(s) and 18 values
	table 0.29351 0.97446 0.30799 0.00898 0.32543 0.00889 0.37612 0.01488 0.31799 0.94283 0.32945 0.00832 0.33019 0.01063 0.37399 0.04819 0.34510 0.98279 ;
}
probability (  "BP"  "CO"  "TPR" ) { //3 variable(s) and 27 values
	table 0.98202 0.95767 0.30181 0.97977 0.09241 0.04866 0.90756 0.03616 0.00903 0.01027 0.02351 0.60304 0.01155 0.82544 0.38611 0.08069 0.20229 0.09214 0.00770 0.01881 0.09514 0.00867 0.08215 0.56522 0.01175 0.76154 0.89882 ;
}
probability (  "CO"  "HR"  "StrokeVolume" ) { //3 variable(s) and 27 values
	table 0.96908 0.95730 0.34981 0.94197 0.03850 0.00529 0.80592 0.00976 0.01430 0.00772 0.04000 0.64949 0.04625 0.91567 0.34625 0.18645 0.03838 0.00010 0.02311 0.00268 0.00017 0.01177 0.04583 0.64840 0.00762 0.95186 0.98563 ;
}
probability (  "HR"  "Catechol" ) { //2 variable(s) and 6 values
	table 0.10182 0.01024 0.88591 0.08713 0.01227 0.90263 ;
}
probability (  "TPR"  "Anaphylaxis" ) { //2 variable(s) and 6 values
	table 0.98865 0.30589 0.00010 0.39793 0.01120 0.29618 ;
}
probability (  "Anaphylaxis" ) { //1 variable(s) and 2 values
	table 0.00825 0.99175 ;
}
probability (  "InsuffAnesth" ) { //1 variable(s) and 2 values
	table 0.19769 0.80231 ;
}
probability (  "PAP"  "PulmEmbolus" ) { //2 variable(s) and 6 values
	table 0.00010 0.04886 0.19238 0.90447 0.80750 0.04667 ;
}
probability (  "PulmEmbolus" ) { //1 variable(s) and 2 values
	table 0.01062 0.98938 ;
}
probability (  "FiO2" ) { //1 variable(s) and 2 values
	table 0.00957 0.99043 ;
}
probability (  "Catechol"  "InsuffAnesth"  "SaO2"  "TPR"  "ArtCO2" ) { //5 variable(s) and 108 values
	table 0.11133 0.00010 0.01396 0.00174 0.00010 0.01848 0.00035 0.03063 0.01594 0.00019 0.01035 0.00021 0.03343 0.00957 0.00015 0.00017 0.05814 0.00025 0.00010 0.00015 0.00174 0.04203 0.07901 0.00058 0.03715 0.00017 0.00071 0.28569 0.02994 0.00175 0.03147 0.03636 0.00512 0.03126 0.04658 0.01078 0.11845 0.10635 0.12390 0.98928 0.95056 0.30855 0.92825 0.95705 0.23466 0.94300 0.95047 0.31245 0.98319 0.99208 0.99934 0.95688 0.99989 0.43734 0.88790 0.99974 0.98599 0.99479 0.99985 0.98148 0.99894 0.96916 0.98400 0.99942 0.98963 0.99938 0.96633 0.99042 0.99956 0.99948 0.94184 0.99925 0.99972 0.99956 0.99479 0.95768 0.92081 0.99825 0.96259 0.99950 0.99786 0.71398 0.97002 0.99823 0.96831 0.96361 0.99487 0.96852 0.95337 0.98921 0.88146 0.89365 0.87599 0.01064 0.04944 0.69138 0.07165 0.04295 0.76523 0.05690 0.04946 0.68712 0.01675 0.00787 0.00022 0.04304 0.00010 0.56223 ;
}
probability (  "SaO2"  "Shunt"  "PVSat" ) { //3 variable(s) and 18 values
	table 0.97914 0.00741 0.01660 0.97432 0.98994 0.76119 0.00745 0.97916 0.00695 0.01444 0.00402 0.23844 0.01341 0.01343 0.97643 0.01123 0.00602 0.00010 ;
}
probability (  "Shunt"  "PulmEmbolus"  "Intubation" ) { //3 variable(s) and 12 values
	table 0.08211 0.00116 0.00050 0.95141 0.96156 0.04287 0.91782 0.99652 0.99850 0.04859 0.03841 0.95711 ;
}
probability (  "PVSat"  "VentAlv"  "FiO2" ) { //3 variable(s) and 24 values
	table 0.99875 0.98524 0.99865 0.97971 0.95971 0.00949 0.99565 0.00448 0.00025 0.00811 0.00027 0.00970 0.04010 0.94994 0.00087 0.01567 0.00025 0.00663 0.00027 0.01058 0.00010 0.04057 0.00087 0.97982 ;
}
probability (  "MinVol"  "VentLung"  "Intubation" ) { //3 variable(s) and 48 values
	table 0.97661 0.98373 0.97108 0.00822 0.97617 0.00010 0.00903 0.49482 0.01577 0.00571 0.49739 0.00027 0.00956 0.00972 0.01434 0.97531 0.00340 0.96989 0.01031 0.49482 0.01373 0.01142 0.49739 0.00027 0.00744 0.00325 0.00010 0.01315 0.00340 0.00010 0.96941 0.00173 0.95244 0.03306 0.00087 0.00027 0.00638 0.00325 0.01434 0.00329 0.00340 0.02949 0.01125 0.00173 0.01802 0.94977 0.00087 0.99812 ;
}
probability (  "ExpCO2"  "ArtCO2"  "VentLung" ) { //3 variable(s) and 48 values
	table 0.99939 0.09178 0.01164 0.00988 0.93283 0.03485 0.00835 0.00010 0.97167 0.00829 0.01282 0.00019 0.00010 0.90630 0.97667 0.97355 0.02229 0.00012 0.00944 0.00010 0.01014 0.01161 0.00467 0.00019 0.00010 0.00032 0.00466 0.01322 0.02229 0.41685 0.96961 0.99940 0.01074 0.02879 0.02813 0.05566 0.00010 0.00032 0.00699 0.00330 0.02229 0.54770 0.01259 0.00010 0.00744 0.95129 0.95437 0.94317 ;
}
probability (  "ArtCO2"  "VentAlv" ) { //2 variable(s) and 12 values
	table 0.00837 0.00714 0.04173 0.87750 0.00835 0.01080 0.92131 0.10716 0.98328 0.98206 0.03696 0.01531 ;
}
probability (  "VentAlv"  "Intubation"  "VentLung" ) { //3 variable(s) and 48 values
	table 0.97333 0.00987 0.00976 0.00587 0.96429 0.00340 0.00173 0.00087 0.92815 0.00010 0.00223 0.00027 0.00853 0.96379 0.00864 0.00587 0.01297 0.97617 0.00173 0.00087 0.02865 0.99928 0.95776 0.76785 0.01279 0.00987 0.97196 0.02075 0.00973 0.00340 0.98792 0.00087 0.02865 0.00010 0.03331 0.15378 0.00533 0.01645 0.00964 0.96746 0.01297 0.00340 0.00173 0.99392 0.01435 0.00010 0.00667 0.07703 ;
}
probability (  "VentLung"  "KinkedTube"  "VentTube"  "Intubation" ) { //4 variable(s) and 96 values
	table 0.99856 0.12500 0.98792 0.93983 0.12500 0.97617 0.41832 0.99836 0.62911 0.33269 0.12500 0.97617 0.97881 0.99825 0.97620 0.01110 0.99811 0.00018 0.00898 0.97672 0.01104 0.00756 0.92054 0.14252 0.00021 0.12500 0.00173 0.05893 0.12500 0.00340 0.57168 0.00023 0.37012 0.66499 0.12500 0.00340 0.00454 0.00025 0.00010 0.95556 0.00027 0.94616 0.01137 0.00388 0.01325 0.01888 0.00027 0.00050 0.00021 0.12500 0.00173 0.00021 0.12500 0.00340 0.00010 0.00023 0.00013 0.00039 0.12500 0.00340 0.00756 0.00025 0.00010 0.01479 0.00027 0.05274 0.97079 0.00388 0.96243 0.02265 0.07783 0.00236 0.00021 0.12500 0.00173 0.00021 0.12500 0.00340 0.00995 0.00023 0.00013 0.00039 0.12500 0.00340 0.00907 0.00025 0.02331 0.01849 0.00027 0.00018 0.00886 0.01547 0.01325 0.95087 0.00027 0.85263 ;
}
probability (  "Intubation" ) { //1 variable(s) and 3 values
	table 0.92001 0.02825 0.05174 ;
}

